var jsonNet = {"layers":[{"0":{},"1":{},"2":{},"3":{}},{"0":{"bias":2.173581814359489,"weights":{"0":-17.67998156590116,"1":42.790455012962425,"2":29.606048488617844,"3":23.401881738082984}},"1":{"bias":7.735952225894544,"weights":{"0":-4.001158986855704,"1":-15.521205945765088,"2":-6.947294507126967,"3":-31.775069524378544}},"2":{"bias":-20.783334228009373,"weights":{"0":22.46212849477525,"1":-7.917450336129111,"2":8.205638893445316,"3":1.443773572780258}},"3":{"bias":-23.10758208093736,"weights":{"0":24.298661157160446,"1":4.529988783914161,"2":-10.97282064757684,"3":1.9138113462639779}},"4":{"bias":-25.963041805527066,"weights":{"0":30.753825409806435,"1":13.939092174698333,"2":-9.858486443276954,"3":11.67196093051587}},"5":{"bias":-19.417420247305092,"weights":{"0":24.270145770234176,"1":-2.2135643257623427,"2":19.347206005286402,"3":-9.558418091520865}},"6":{"bias":11.937574125887286,"weights":{"0":-10.431821718024139,"1":4.13537778378612,"2":12.858097031019078,"3":-19.40073093474042}},"7":{"bias":-18.156071394732756,"weights":{"0":15.350906216370252,"1":-9.646953084945887,"2":23.77350498882523,"3":-15.63824484746796}},"8":{"bias":-20.10156978746443,"weights":{"0":11.233232444349206,"1":24.81916586688944,"2":9.455824741960464,"3":-12.99882015038758}},"9":{"bias":0.6765758185725801,"weights":{"0":-9.755605648227583,"1":32.73733798269447,"2":-3.388587176569017,"3":-9.792156276478675}}},{"0":{"bias":11.434632921197556,"weights":{"0":16.203012731690386,"1":17.98864218493873,"2":-5.773874871210637,"3":0.21818175187731717,"4":-6.187273293665435,"5":-1.5417778882582733,"6":-15.664905933623302,"7":-7.121280798934338,"8":8.651879616396531,"9":4.219097574305334}},"1":{"bias":3.1106990320054946,"weights":{"0":13.524551087685756,"1":-2.038514344355647,"2":-8.73543079614838,"3":-1.9606510145690097,"4":-17.156006273929293,"5":-2.762212909404844,"6":-1.5922598916471609,"7":-11.141865919264525,"8":4.27021975864576,"9":6.130257044056464}},"2":{"bias":8.537706139208227,"weights":{"0":4.728048637576091,"1":12.79494757058244,"2":-6.970417614121406,"3":8.283791977983801,"4":12.248838065383472,"5":-11.207756592297548,"6":-0.811592884308629,"7":-8.251884124739709,"8":0.4077767590772292,"9":-1.9340503470300998}},"3":{"bias":-1.4435266254751713,"weights":{"0":10.612968129384061,"1":5.1224374710672285,"2":-15.223171550634081,"3":-7.351519002598077,"4":-3.82141488499265,"5":-3.519849630164838,"6":-0.3209980556841724,"7":-21.27609567803403,"8":-3.195273603818077,"9":9.523974766991014}},"4":{"bias":1.9627725575786077,"weights":{"0":-7.393891942720565,"1":-3.457246627496034,"2":0.41617193850689777,"3":-17.452037528819343,"4":-6.346166694508391,"5":2.8977288920127697,"6":8.446111967498585,"7":-3.9620120084069668,"8":-5.568620897828578,"9":-7.564143253838114}},"5":{"bias":-17.93641387729412,"weights":{"0":11.761798510273202,"1":7.36473492371201,"2":3.6570412435759128,"3":3.7422080276520524,"4":6.08784201168736,"5":-1.7293326456636233,"6":-3.122073222458976,"7":-2.7266348989902647,"8":12.110684178481568,"9":20.410590544069393}},"6":{"bias":-7.635430020055297,"weights":{"0":18.98032598935725,"1":-5.135577333072069,"2":-4.109431688596485,"3":-4.040645007778181,"4":-9.109151818758098,"5":11.194930391183583,"6":0.892786094713674,"7":-3.5395306513580933,"8":6.861773650426703,"9":-5.332310212315442}},"7":{"bias":-6.084759902773711,"weights":{"0":-4.312951611253637,"1":1.325959971242371,"2":-9.008584401094454,"3":-5.002889353187818,"4":-0.5143972812498955,"5":-21.071586620455943,"6":5.074709995585266,"7":-12.628448980035888,"8":1.8913871609948,"9":3.821688545085315}},"8":{"bias":13.896190507481014,"weights":{"0":10.792584444627579,"1":6.738120477035546,"2":-14.573964123063881,"3":-14.498500250031118,"4":1.9982039211812093,"5":-2.783766945371027,"6":11.707281079482291,"7":-18.249007985456494,"8":-9.025313185628073,"9":2.2914917473703023}},"9":{"bias":8.413544809325765,"weights":{"0":-6.297300462863921,"1":-1.9368153169080227,"2":-0.9778960218200835,"3":4.937150243935252,"4":3.1338747024668185,"5":-14.408170445982694,"6":-0.3368267668312516,"7":9.790796798898583,"8":-3.8472886776613917,"9":-4.29997247174408}}},{"0":{"bias":-23.785569387211606,"weights":{"0":3.949293027320259,"1":-10.33625352445958,"2":6.431443007703363,"3":-9.170250023423057,"4":5.878561591552279,"5":-16.8239698957505,"6":10.634921202293453,"7":-5.693334532550349,"8":8.48640438031265,"9":6.753610901014818}},"1":{"bias":-12.818652709786006,"weights":{"0":-3.79568074609058,"1":-6.1682134456796724,"2":-2.677581304456184,"3":3.6116927080525723,"4":1.1792819854514873,"5":15.212685895480327,"6":-8.76532085812052,"7":-10.54650193623916,"8":9.003173365108896,"9":-0.5084883579671279}}}],"outputLookup":false,"inputLookup":false}